{"learner":{"attributes":{"best_iteration":"12","best_ntree_limit":"13"},"feature_names":[],"feature_types":[],"gradient_booster":{"model":{"gbtree_model_param":{"num_parallel_tree":"1","num_trees":"13","size_leaf_vector":"0"},"tree_info":[0,0,0,0,0,0,0,0,0,0,0,0,0],"trees":[{"base_weights":[-3.0619866E-1,1.4655533E0,-1.287037E0,-1.4285715E0,1.6307693E0,-1.6573033E0,4.3589744E-1,-1.6666666E0,-0E0,1.7209302E0,6.896552E-2,2.8169014E-2,-1.8325582E0,-1.2941177E0,1.2293578E0,1.1578947E0,1.8212291E0,-1.1428572E0,9.4736844E-1,1.3142858E0,-1.1E0,-1.8618524E0,3.3333334E-1,1.2727273E0,-1.8181819E0,1.6097561E0,6.451613E-2,1.5625E0,-7.5E-1,1.8787879E0,1E0,1.3846154E0,-0E0,-1.8181819E-1,1.7142857E0,-1.5294118E0,8E-1,2.2222222E-1,-1.8797468E0,-5E-1,1E0,1.8064516E0,8.333333E-1,1.0769231E0,-5.4545456E-1,1.7333333E0,-5E-1,5E-1,-1.3333334E0,1.9127725E0,4.6153846E-1,-1E0,1.4285715E0,-0E0,-1.7333333E0,-4.6153846E-1,-1.8972713E0,-8E-1,1.5555556E0,-1E0,4E-1,5E-1,1.7857143E0,1.9242902E0,5E-1,-5E-1,1.1111112E0,1.6666666E0,-0E0,-1.1111112E0,5E-1,-1.96139E0,-1.5229357E0,-0E0,-1.3333334E0,5E-1,1.9361023E0,-9.3333334E-1,-1.9763314E0,-0E0,-1.8241758E0,-1.2727273E0,-0E0,1.1428572E0,-1.3333334E0,-1.862069E0,-5E-1,-1.9036144E0,-5E-1],"categories":[],"categories_nodes":[],"categories_segments":[],"categories_sizes":[],"default_left":[1,1,1,1,1,1,1,0,0,1,1,1,1,1,1,1,1,0,1,1,1,1,1,0,0,1,1,1,1,1,1,0,0,0,0,1,0,0,1,0,0,0,1,0,1,1,0,0,0,1,1,0,1,0,0,1,1,0,0,1,0,0,0,1,0,0,0,0,0,0,0,1,1,0,0,0,0,1,0,1,1,0,0,0,0,1,0,0,0],"id":0,"left_children":[1,3,5,7,9,11,13,-1,-1,15,17,19,21,23,25,27,29,-1,31,33,35,37,39,-1,-1,41,43,45,47,49,51,-1,-1,-1,-1,53,-1,-1,55,-1,-1,-1,57,-1,59,61,-1,-1,-1,63,65,-1,67,-1,-1,69,71,-1,-1,73,-1,-1,-1,75,-1,-1,-1,-1,-1,-1,-1,77,79,-1,-1,-1,-1,81,-1,83,85,-1,-1,-1,-1,87,-1,-1,-1],"loss_changes":[5.836155E2,5.9588806E1,1.3851843E2,2.380952E0,1.5898895E1,5.2630554E1,5.5126175E1,0E0,0E0,3.961914E0,8.800104E0,2.7200203E1,1.0851624E1,1.9465239E1,1.1970722E1,1.5838816E1,2.3518066E0,0E0,1.9676113E0,5.548053E0,9.382353E0,6.3566284E0,2.1666667E0,0E0,0E0,1.6253624E0,5.3733363E0,6.5041656E0,3.5833335E0,3.0907898E0,8.285713E0,0E0,0E0,0E0,0E0,2.65098E0,0E0,0E0,3.0512085E0,0E0,0E0,0E0,8.322224E0,0E0,2.7636366E0,7.619095E-2,0E0,0E0,0E0,3.4365845E-1,2.58547E0,0E0,2.380952E0,0E0,0E0,2.58547E0,7.512207E-1,0E0,0E0,1.3333335E0,0E0,0E0,0E0,3.6523438E-1,0E0,0E0,0E0,0E0,0E0,0E0,0E0,1.446228E-1,1.2501465E1,0E0,0E0,0E0,0E0,1.1878788E0,0E0,9.904762E0,2.10495E-1,0E0,0E0,0E0,0E0,2.7897644E-1,0E0,0E0,0E0],"parents":[2147483647,0,0,1,1,2,2,3,3,4,4,5,5,6,6,9,9,10,10,11,11,12,12,13,13,14,14,15,15,16,16,18,18,19,19,20,20,21,21,22,22,25,25,26,26,27,27,28,28,29,29,30,30,35,35,38,38,42,42,44,44,45,45,49,49,50,50,52,52,55,55,56,56,59,59,63,63,71,71,72,72,77,77,79,79,80,80,85,85],"right_children":[2,4,6,8,10,12,14,-1,-1,16,18,20,22,24,26,28,30,-1,32,34,36,38,40,-1,-1,42,44,46,48,50,52,-1,-1,-1,-1,54,-1,-1,56,-1,-1,-1,58,-1,60,62,-1,-1,-1,64,66,-1,68,-1,-1,70,72,-1,-1,74,-1,-1,-1,76,-1,-1,-1,-1,-1,-1,-1,78,80,-1,-1,-1,-1,82,-1,84,86,-1,-1,-1,-1,88,-1,-1,-1],"split_conditions":[3.586125E3,2.5162668E2,1.09425E3,1.6825E2,2.79275E3,3.75E-1,8.080125E3,-1E0,-0E0,7.708867E2,5.17E2,1.0823875E4,8.03125E2,7.05E1,3.39375E2,3.078875E3,1.223E3,-6.8571436E-1,2.875E1,3.0875E1,2.2205E3,2E0,1.2650875E4,7.636364E-1,-1.0909091E0,3.22675E3,6.37875E2,1.691375E3,4.5625E1,3.975E0,1.4542109E3,8.307693E-1,-0E0,-1.0909092E-1,1.0285715E0,7.02E2,4.8000002E-1,1.3333334E-1,3.2242188E3,-3E-1,6E-1,1.083871E0,4.58125E2,6.461539E-1,1.715375E3,2.375E1,-3E-1,3E-1,-8.000001E-1,3.481875E3,8.4275E2,-6E-1,3.051E3,-0E0,-1.0400001E0,2.8536094E3,6.23E2,-4.8000002E-1,9.333334E-1,2.04375E2,2.4000001E-1,3E-1,1.0714287E0,1.026875E3,3E-1,-3E-1,6.6666675E-1,1E0,-0E0,-6.6666675E-1,3E-1,1.375E0,1.96775E3,-0E0,-8.000001E-1,3E-1,1.1616614E0,2.215E2,-1.1857989E0,9.26875E2,5.9E2,-7.636364E-1,-0E0,6.8571436E-1,-8.000001E-1,7.84E2,-3E-1,-1.1421686E0,-3E-1],"split_indices":[11,15,1,22,20,18,39,0,0,15,1,3,45,19,36,21,40,0,18,1,4,37,3,0,0,22,19,29,9,27,5,0,0,0,0,13,0,0,5,0,0,0,37,0,45,1,0,0,0,11,4,0,11,0,0,5,1,0,0,45,0,0,0,30,0,0,0,0,0,0,0,36,40,0,0,0,0,1,0,19,0,0,0,0,0,18,0,0,0],"split_type":[0,0,0,0,0,0,0,0,0,0,0,0,0,0,0,0,0,0,0,0,0,0,0,0,0,0,0,0,0,0,0,0,0,0,0,0,0,0,0,0,0,0,0,0,0,0,0,0,0,0,0,0,0,0,0,0,0,0,0,0,0,0,0,0,0,0,0,0,0,0,0,0,0,0,0,0,0,0,0,0,0,0,0,0,0,0,0,0,0],"sum_hessian":[3.3375E2,1.1875E2,2.15E2,6E0,1.1275E2,1.77E2,3.8E1,5E0,1E0,1.065E2,6.25E0,1.675E1,1.6025E2,1.175E1,2.625E1,1.8E1,8.85E1,2.5E0,3.75E0,7.75E0,9E0,1.5825E2,2E0,1.75E0,1E1,1.95E1,6.75E0,1.5E1,3E0,8.15E1,7E0,2.25E0,1.5E0,1.75E0,6E0,7.5E0,1.5E0,1.25E0,1.57E2,1E0,1E0,1.45E1,5E0,2.25E0,4.5E0,1.4E1,1E0,1E0,2E0,7.925E1,2.25E0,1E0,6E0,1E0,6.5E0,2.25E0,1.5475E2,1.5E0,3.5E0,3E0,1.5E0,1E0,1.3E1,7.825E1,1E0,1E0,1.25E0,5E0,1E0,1.25E0,1E0,1.285E2,2.625E1,1E0,2E0,1E0,7.725E1,2.75E0,1.2575E2,4.5E0,2.175E1,1.75E0,1E0,2.5E0,2E0,2.075E1,1E0,1.975E1,1E0],"tree_param":{"num_deleted":"0","num_feature":"54","num_nodes":"89","size_leaf_vector":"0"}},{"base_weights":[-2.3013051E-1,6.908768E-1,-9.0204346E-1,8.4720707E-1,-7.1577734E-1,3.9252323E-1,-1.0950233E0,-1.0903208E0,9.327414E-1,5.786464E-1,-1.2050399E0,-1.2703146E0,1.1031436E0,-1.1874975E0,1.9914266E-1,1.034402E0,-7.366085E-2,-6.719499E-2,8.8755614E-1,-2.704824E-1,-1.2973557E0,-2.0211013E-1,1.2641053E0,-8.5991687E-1,-1.2927482E0,6.0785496E-1,-1.0431335E0,-7.009222E-1,1.0714178E0,-1.4293175E0,7.779492E-1,1.3875953E0,3.688359E-1,-1.139776E0,-1.5748218E-1,-6.81397E-1,9.281251E-1,1.2002993E0,7.014393E-1,-1.899608E0,-5.310334E-1,1.2290277E0,-7.0565104E-1,-1.2668897E0,-1.6333707E-1,1.0017242E0,-8.4967715E-1,1.1158067E0,1.4790621E-1,3.707302E-1,1.2211101E0,-5.1417726E-1,1.2723004E0,8.2860357E-1,-8.460079E-1,-1.9468416E-1,1.4685779E0,5.06174E-1,-1.209963E0,3.4145337E-1,1.2261556E0,6.8773323E-1,1.2664607E0,8.689502E-1,-1.5561868E0,-4.1631415E-2,1.3660867E0,1.0960482E0,-7.077552E-1,1.278312E0,3.615778E-1,1.4356775E0,2.5612566E-1,1.4839092E0,4.4118127E-1],"categories":[],"categories_nodes":[],"categories_segments":[],"categories_sizes":[],"default_left":[1,1,1,1,1,1,1,0,1,1,1,0,1,1,1,1,1,0,0,0,0,0,1,1,0,1,0,0,1,1,1,0,0,1,1,0,1,1,1,0,0,0,0,0,1,1,1,1,0,0,1,1,1,0,0,0,0,0,0,0,0,1,1,0,0,0,1,0,0,0,0,1,0,0,0],"id":1,"left_children":[1,3,5,7,9,11,13,-1,15,17,19,-1,21,23,25,27,29,-1,-1,-1,-1,-1,31,33,-1,35,-1,-1,37,39,41,-1,-1,43,45,-1,47,49,51,-1,-1,-1,-1,-1,53,55,57,59,-1,-1,61,63,65,-1,-1,-1,-1,-1,-1,-1,-1,67,69,-1,-1,-1,71,-1,-1,-1,-1,73,-1,-1,-1],"loss_changes":[1.5419017E2,2.374913E1,3.638304E1,1.6789452E1,7.7069683E0,2.433245E1,1.5256851E1,0E0,9.456879E0,8.0012786E-1,3.7005234E-1,0E0,3.2243633E0,2.9319763E0,5.318633E0,6.1044235E0,1.1901242E1,0E0,0E0,0E0,0E0,0E0,8.9422035E-1,6.013981E0,0E0,3.759868E0,0E0,0E0,3.067955E0,6.633806E-1,5.1418185E0,0E0,0E0,2.5695248E0,8.984569E0,0E0,7.8537035E-1,5.7289886E-1,1.702452E1,0E0,0E0,0E0,0E0,0E0,3.2232146E0,2.6590114E0,3.9770594E0,1.53265E-2,0E0,0E0,5.2028656E-1,1.3242861E1,2.0704136E0,0E0,0E0,0E0,0E0,0E0,0E0,0E0,0E0,4.5908346E0,9.353638E-2,0E0,0E0,0E0,8.1262016E-1,0E0,0E0,0E0,0E0,2.4633408E-2,0E0,0E0,0E0],"parents":[2147483647,0,0,1,1,2,2,3,3,4,4,5,5,6,6,8,8,9,9,10,10,12,12,13,13,14,14,15,15,16,16,22,22,23,23,25,25,28,28,29,29,30,30,33,33,34,34,36,36,37,37,38,38,44,44,45,45,46,46,47,47,50,50,51,51,52,52,61,61,62,62,66,66,71,71],"right_children":[2,4,6,8,10,12,14,-1,16,18,20,-1,22,24,26,28,30,-1,-1,-1,-1,-1,32,34,-1,36,-1,-1,38,40,42,-1,-1,44,46,-1,48,50,52,-1,-1,-1,-1,-1,54,56,58,60,-1,-1,62,64,66,-1,-1,-1,-1,-1,-1,-1,-1,68,70,-1,-1,-1,72,-1,-1,-1,-1,74,-1,-1,-1],"split_conditions":[4.392625E3,1.53155E4,8.75E-1,2.0249805E2,3.031E3,7.95E1,6.172334E3,-6.541925E-1,8.99E2,2.2725E2,5.3680103E3,-7.621888E-1,7.67125E3,4.965375E3,2.8934E4,5E-1,3.622375E3,-4.0316995E-2,5.325337E-1,-1.6228944E-1,-7.784134E-1,-1.2126608E-1,1.34355E4,8.93E2,-7.7564895E-1,9.578625E3,-6.258801E-1,-4.2055333E-1,2.8225E2,2.04475E3,1.307E3,8.325572E-1,2.2130154E-1,2.83475E3,3.1E1,-4.0883824E-1,4.255716E4,3.5E0,4.41E2,-1.1397649E0,-3.1862006E-1,7.374167E-1,-4.2339066E-1,-7.6013386E-1,3.43825E3,4.425E2,4.75E-1,5.6625E1,8.874373E-2,2.2243813E-1,1.786803E3,1.470125E3,1.583375E3,4.9716216E-1,-5.076048E-1,-1.168105E-1,8.811467E-1,3.0370444E-1,-7.259778E-1,2.0487203E-1,7.356934E-1,3.574707E2,1.05125E2,5.213701E-1,-9.337121E-1,-2.497885E-2,1.451475E4,6.5762895E-1,-4.2465314E-1,7.669872E-1,2.1694669E-1,3.475E0,1.536754E-1,8.903456E-1,2.647088E-1],"split_indices":[47,48,18,5,11,1,15,0,10,1,24,0,39,38,40,1,38,0,0,0,0,0,3,31,0,39,0,0,10,38,37,0,0,4,36,0,24,1,1,0,0,0,0,0,4,1,27,36,0,0,33,2,48,0,0,0,0,0,0,0,0,5,28,0,0,0,12,0,0,0,0,27,0,0,0],"split_type":[0,0,0,0,0,0,0,0,0,0,0,0,0,0,0,0,0,0,0,0,0,0,0,0,0,0,0,0,0,0,0,0,0,0,0,0,0,0,0,0,0,0,0,0,0,0,0,0,0,0,0,0,0,0,0,0,0,0,0,0,0,0,0,0,0,0,0,0,0,0,0,0,0,0,0],"sum_hessian":[2.4715427E2,1.0424074E2,1.4291353E2,9.417248E1,1.0068262E1,1.8406065E1,1.2450746E2,3.4849112E0,9.068757E1,2.7115977E0,7.356664E0,5.2750163E0,1.3131049E1,1.16281044E2,8.226412E0,8.234206E1,8.3455105E0,1.1305077E0,1.58109E0,1.0146666E0,6.3419976E0,1.4134679E0,1.1717582E1,3.0505714E1,8.577533E1,6.574181E0,1.6522312E0,1.345146E0,8.099691E1,2.9581444E0,5.3873663E0,9.813963E0,1.9036186E0,2.13693E1,9.136415E0,1.0837916E0,5.4903893E0,5.8406765E1,2.2590143E1,1.209967E0,1.7481775E0,4.262863E0,1.1245034E0,1.864466E1,2.7246387E0,3.2487016E0,5.887713E0,4.0790534E0,1.4113361E0,1.8897882E0,5.651698E1,7.25031E0,1.5339834E1,1.0235798E0,1.7010589E0,1.0754995E0,2.173202E0,1.151057E0,4.7366557E0,1.0194637E0,3.0595896E0,5.6955223E0,5.0821457E1,3.1866043E0,4.063706E0,1.0590348E0,1.4280799E1,4.57227E0,1.1232524E0,4.9757095E1,1.0643599E0,1.316213E1,1.1186689E0,1.2083953E1,1.078177E0],"tree_param":{"num_deleted":"0","num_feature":"54","num_nodes":"75","size_leaf_vector":"0"}},{"base_weights":[-2.1948712E-1,4.7698855E-1,-7.1640146E-1,-1.0661687E0,5.5772126E-1,-8.649177E-1,4.0282503E-1,8.831039E-1,1.3157521E-1,-9.1460156E-1,4.8528796E-1,8.3560765E-1,-7.1862787E-1,2.624452E-1,1.0533046E0,-9.416858E-1,5.139901E-1,-1.1079062E0,-5.588725E-1,-5.836707E-1,1.2461032E0,-3.025525E-1,9.953213E-1,3.945102E-1,-1.1827091E0,9.27773E-1,-1.1670605E0,-7.47888E-2,1.125666E0,5.8508116E-1,-1.3119137E0,7.7847695E-1,-2.0647824E-1,5.6445503E-1,-1.1529281E0,3.0834892E-1,-9.888205E-1,5.4607457E-1,1.3472769E0,-1.4103987E0,-3.5547742E-1,5.438201E-2,1.0910482E0,-2.5133452E0,3.7757736E-1,1.1486591E0,2.3608698E-1,2.3515658E-2,-1.5478104E0,9.0902555E-1,-2.3117828E-1,-1.076775E0,8.9438707E-1,-1.8005058E-2,-1.1744909E0,1.0387814E0,-8.156863E-1,-1.3995251E-1,-1.0947698E0,1.0543301E0,-6.3529074E-1,2.6827952E-1,1.1742003E0,-1.6727244E0,3.4730732E-1,-1.1846877E0,-3.4843478E-1,-1.3747667E-1,1.2755021E0,-9.242844E-1,-1.7365836E-1,-7.270644E-1,7.0213896E-1,-6.573355E-2,-1.1617976E0,7.0645946E-1,-6.929668E-1,1.7681701E-1,1.4393189E0,-1.2244858E0,-3.633526E-1,9.035225E-2,9.523218E-1],"categories":[],"categories_nodes":[],"categories_segments":[],"categories_sizes":[],"default_left":[1,1,1,0,1,1,1,1,1,1,1,1,1,1,1,1,1,1,1,0,0,0,1,0,1,1,1,0,1,0,1,1,1,0,1,1,1,1,0,0,0,0,0,0,0,0,0,0,0,1,0,1,0,0,1,1,1,1,1,0,0,1,0,0,0,0,0,0,1,0,0,0,0,0,1,1,0,0,0,0,0,0,0],"id":2,"left_children":[1,3,5,-1,7,9,11,13,15,17,19,21,23,25,27,29,31,33,35,-1,-1,-1,37,-1,39,41,43,-1,45,-1,47,49,51,-1,53,55,57,59,-1,-1,-1,-1,-1,-1,-1,-1,-1,-1,-1,61,-1,63,-1,-1,65,67,69,71,73,-1,-1,75,-1,-1,-1,-1,-1,-1,77,-1,-1,-1,-1,-1,79,81,-1,-1,-1,-1,-1,-1,-1],"loss_changes":[6.446529E1,1.0280865E1,1.8388897E1,0E0,1.0219608E1,6.8928986E0,7.1025386E0,4.17004E0,1.4212173E1,5.7806625E0,4.0335298E0,2.142335E0,2.671385E0,1.096507E1,2.753643E0,5.9340477E0,4.9832935E0,5.114403E0,1.3275214E1,0E0,0E0,0E0,7.055721E-1,0E0,1.13099575E-1,1.0312314E0,8.732536E0,0E0,3.5865784E-1,0E0,2.450961E0,2.677847E0,8.231282E0,0E0,1.3996582E0,1.0939559E1,1.9597492E0,4.0837827E0,0E0,0E0,0E0,0E0,0E0,0E0,0E0,0E0,0E0,0E0,0E0,2.536234E0,0E0,4.5617266E0,0E0,0E0,6.699371E-2,2.3723917E0,2.1611619E-1,2.3662488E0,1.3541775E0,0E0,0E0,3.1044164E0,0E0,0E0,0E0,0E0,0E0,0E0,9.4523335E-1,0E0,0E0,0E0,0E0,0E0,5.267124E-1,6.349082E-1,0E0,0E0,0E0,0E0,0E0,0E0,0E0],"parents":[2147483647,0,0,1,1,2,2,4,4,5,5,6,6,7,7,8,8,9,9,10,10,11,11,12,12,13,13,14,14,15,15,16,16,17,17,18,18,22,22,24,24,25,25,26,26,28,28,30,30,31,31,32,32,34,34,35,35,36,36,37,37,49,49,51,51,54,54,55,55,56,56,57,57,58,58,61,61,68,68,74,74,75,75],"right_children":[2,4,6,-1,8,10,12,14,16,18,20,22,24,26,28,30,32,34,36,-1,-1,-1,38,-1,40,42,44,-1,46,-1,48,50,52,-1,54,56,58,60,-1,-1,-1,-1,-1,-1,-1,-1,-1,-1,-1,62,-1,64,-1,-1,66,68,70,72,74,-1,-1,76,-1,-1,-1,-1,-1,-1,78,-1,-1,-1,-1,-1,80,82,-1,-1,-1,-1,-1,-1,-1],"split_conditions":[4.19425E3,2.1233942E2,1.7816375E4,-6.3970125E-1,1.686E3,2.301125E3,1.8875E1,1.989125E3,8.575E2,2.909375E3,2.175E2,1.0525E2,8.9375E1,2.288375E3,3.5E0,2.95925E3,8.8825E2,2.45E1,4.3875E1,-3.502024E-1,7.4766195E-1,-1.815315E-1,2.78125E3,2.3670614E-1,9.3750375E4,5.375E0,1.97375E2,-4.4873282E-2,2.05925E3,3.510487E-1,3.1325E2,1.540575E4,9.4585E3,3.3867303E-1,1.428225E4,1.2418125E4,4.5E0,9.75E1,8.083662E-1,-8.4623927E-1,-2.1328646E-1,3.2629207E-2,6.54629E-1,-1.5080072E0,2.2654642E-1,6.891955E-1,1.416522E-1,1.4109395E-2,-9.286863E-1,4.496E3,-1.3870698E-1,7.41E2,5.3663224E-1,-1.0803035E-2,7.95675E3,9.2155E3,2.325E1,3.5375E2,5.4875E2,6.325981E-1,-3.8117447E-1,2.839375E3,7.045202E-1,-1.0036347E0,2.0838441E-1,-7.108127E-1,-2.0906088E-1,-8.2486E-2,1.92777E4,-5.545707E-1,-1.0419502E-1,-4.3623865E-1,4.212834E-1,-3.9440133E-2,1.4488875E4,1.375E0,-4.157801E-1,1.0609021E-1,8.635914E-1,-7.346915E-1,-2.1801157E-1,5.4211352E-2,5.7139313E-1],"split_indices":[47,15,12,0,11,1,27,39,4,29,9,1,18,21,46,3,10,22,18,0,0,0,37,0,12,45,1,0,29,0,13,3,39,0,30,3,0,31,0,0,0,0,0,0,0,0,0,0,0,39,0,45,0,0,20,39,9,1,40,0,0,2,0,0,0,0,0,0,30,0,0,0,0,0,12,28,0,0,0,0,0,0,0],"split_type":[0,0,0,0,0,0,0,0,0,0,0,0,0,0,0,0,0,0,0,0,0,0,0,0,0,0,0,0,0,0,0,0,0,0,0,0,0,0,0,0,0,0,0,0,0,0,0,0,0,0,0,0,0,0,0,0,0,0,0,0,0,0,0,0,0,0,0,0,0,0,0,0,0,0,0,0,0,0,0,0,0,0,0],"sum_hessian":[1.8428075E2,7.6749146E1,1.0753159E2,3.2087946E0,7.354035E1,9.513485E1,1.2396744E1,4.109221E1,3.2448147E1,9.2069565E1,3.0652862E0,9.128738E0,3.2680056E0,9.390503E0,3.1701704E1,8.140124E0,2.4308022E1,5.828356E1,3.3786E1,1.3713502E0,1.6939359E0,1.0133075E0,8.115431E0,1.0056884E0,2.2623172E0,6.64755E0,2.742953E0,1.908904E0,2.97928E1,1.4754118E0,6.664713E0,1.7721771E1,6.5862494E0,1.225469E0,5.705809E1,1.1292143E1,2.2493858E1,4.6858344E0,3.4295964E0,1.2212224E0,1.0410949E0,1.2569504E0,5.3906E0,1.1304909E0,1.612462E0,2.8758242E1,1.0345583E0,1.1357062E0,5.529007E0,1.5780959E1,1.9408133E0,3.6905458E0,2.8957036E0,1.0980709E0,5.5960022E1,6.8903975E0,4.401745E0,2.7535226E0,1.9740335E1,3.3514721E0,1.3343623E0,5.2081447E0,1.0572814E1,2.4786732E0,1.2118725E0,5.4848824E1,1.1111976E0,1.2246073E0,5.6657906E0,3.388887E0,1.0128582E0,1.7028683E0,1.0506543E0,1.3283097E0,1.8412025E1,3.7594671E0,1.4486775E0,1.004977E0,4.6608133E0,1.6576937E1,1.8350887E0,1.4623789E0,2.2970881E0],"tree_param":{"num_deleted":"0","num_feature":"54","num_nodes":"83","size_leaf_vector":"0"}},{"base_weights":[-1.1882199E-1,3.8220173E-1,-6.3770574E-1,-5.0167596E-1,5.1235795E-1,-9.7005343E-1,-2.566341E-1,9.491474E-1,-8.836667E-1,7.909662E-1,3.469428E-3,-1.0164942E0,2.0446074E-1,1.1223326E0,-4.9372852E-1,-1.4285353E0,-1.5601906E-1,8.8977E-1,-1.9600807E-1,4.0744227E-1,-5.504168E-1,-5.016935E-1,-1.063982E0,-6.384149E-1,8.7172985E-1,-1.3788779E-1,-1.7820771E0,6.077402E-1,-7.014676E-1,6.9065076E-1,1.2688371E0,-7.488082E-1,4.7168902E-1,8.125584E-1,-5.52342E-1,-8.044612E-1,4.0266952E-1,-8.845491E-1,4.495531E-1,4.1440168E-1,-9.1448694E-1,-1.6509743E-1,-9.049884E-1,1.0217752E0,2.3561636E-1,3.528437E-1,1.3296893E0,2.7800336E-1,1.0470593E0,-8.6397594E-1,1.7910142E-1,-3.3454194E-3,-1.1612289E0,-8.977515E-1,1.0078986E0,4.6078616E-1,-1.029659E0,-2.4474318E-1,6.971506E-1,7.823442E-1,-5.924106E-1,1.1523043E0,2.4884662E-1,6.891446E-1,-6.475483E-1,-1.2914165E0,-2.9905656E-1,-1.0966302E0,6.943156E-2,5.1890707E-1,-8.6912227E-1,9.76854E-1,-2.197566E-1,-2.879649E-1,-1.2186348E0,-9.857161E-2,8.076698E-1,3.303227E-1,-1.4040958E0,5.080665E-1,-7.9513836E-1],"categories":[],"categories_nodes":[],"categories_segments":[],"categories_sizes":[],"default_left":[1,1,1,1,1,1,1,0,1,1,1,1,0,0,1,1,1,1,1,1,1,1,0,1,0,0,0,0,1,1,1,0,0,1,1,1,0,0,0,1,1,0,0,0,1,0,0,1,1,0,0,1,1,0,0,0,1,1,1,0,0,0,0,0,0,0,0,1,0,1,1,0,0,1,0,0,0,0,0,0,0],"id":3,"left_children":[1,3,5,7,9,11,13,-1,15,17,19,21,-1,-1,23,25,27,29,31,33,35,37,-1,39,-1,-1,-1,-1,41,43,45,-1,-1,47,49,51,-1,-1,-1,53,55,-1,-1,-1,57,-1,-1,59,61,-1,-1,63,65,-1,-1,-1,67,69,71,-1,-1,-1,-1,-1,-1,-1,-1,73,-1,75,77,-1,-1,79,-1,-1,-1,-1,-1,-1,-1],"loss_changes":[3.4715954E1,8.089784E0,8.0482025E0,5.9619975E0,8.4816065E0,2.096962E0,1.09768915E1,0E0,2.8837147E0,3.9449615E0,5.186184E0,2.8479004E-1,0E0,0E0,6.0678825E0,1.7427816E0,2.291666E0,1.7901993E0,1.9543687E0,5.658206E0,2.6914093E0,2.1166766E0,0E0,7.878152E0,0E0,0E0,0E0,0E0,1.8641198E-1,3.5797024E0,1.4240265E-1,0E0,0E0,9.406247E-1,1.1968774E0,2.2979507E0,0E0,0E0,0E0,5.614978E0,3.761568E0,0E0,0E0,0E0,2.8264897E0,0E0,0E0,2.3763924E0,2.5663996E-1,0E0,0E0,2.000654E0,2.3891163E-1,0E0,0E0,0E0,1.5084229E0,3.6027646E0,1.8481462E0,0E0,0E0,0E0,0E0,0E0,0E0,0E0,0E0,1.4644737E0,0E0,7.214414E-1,3.0372567E0,0E0,0E0,1.9064832E0,0E0,0E0,0E0,0E0,0E0,0E0,0E0],"parents":[2147483647,0,0,1,1,2,2,3,3,4,4,5,5,6,6,8,8,9,9,10,10,11,11,14,14,15,15,16,16,17,17,18,18,19,19,20,20,21,21,23,23,28,28,29,29,30,30,33,33,34,34,35,35,39,39,40,40,44,44,47,47,48,48,51,51,52,52,56,56,57,57,58,58,67,67,69,69,70,70,73,73],"right_children":[2,4,6,8,10,12,14,-1,16,18,20,22,-1,-1,24,26,28,30,32,34,36,38,-1,40,-1,-1,-1,-1,42,44,46,-1,-1,48,50,52,-1,-1,-1,54,56,-1,-1,-1,58,-1,-1,60,62,-1,-1,64,66,-1,-1,-1,68,70,72,-1,-1,-1,-1,-1,-1,-1,-1,74,-1,76,78,-1,-1,80,-1,-1,-1,-1,-1,-1,-1],"split_conditions":[4.65625E3,2.7375E2,4.80625E2,2.34125E2,6.4E1,4.262E3,7.9E1,5.6948847E-1,1.075E1,1.5545E4,5.44E2,1.4875E1,1.2267645E-1,6.7339957E-1,3.28125E3,1.3875E1,5.275E1,1.9055176E4,1.3700545E4,4.8256055E3,5.47125E2,5.12E2,-6.383892E-1,1.225E1,5.230379E-1,-8.273268E-2,-1.0692463E0,3.6464414E-1,9.0875E1,9.4375E2,4.478625E3,-4.4928494E-1,2.8301343E-1,4.0175E2,5.1475E2,7.7770693E3,2.4160172E-1,-5.307295E-1,2.6973188E-1,2.9165E3,1.5E0,-9.9058464E-2,-5.4299307E-1,6.130652E-1,4.649125E3,2.1170624E-1,7.978136E-1,1.687875E3,4.6325E2,-5.183856E-1,1.0746086E-1,1.985E2,3.95875E2,-5.3865093E-1,6.047392E-1,2.764717E-1,4.46E3,1.4771614E3,8.75575E3,4.6940655E-1,-3.554464E-1,6.913826E-1,1.4930798E-1,4.1348678E-1,-3.88529E-1,-7.7484995E-1,-1.7943394E-1,1.811E3,4.1658938E-2,1.07125E2,2.33E2,5.8611244E-1,-1.3185397E-1,5E-1,-7.311809E-1,-5.914297E-2,4.846019E-1,1.9819364E-1,-8.424575E-1,3.048399E-1,-4.7708303E-1],"split_indices":[11,4,1,11,18,13,19,0,31,3,37,19,0,0,0,29,10,30,33,42,0,22,0,0,0,0,0,0,19,5,48,0,0,1,0,33,0,0,0,29,9,0,0,0,39,0,0,11,0,0,0,9,36,0,0,0,19,42,3,0,0,0,0,0,0,0,0,40,0,10,22,0,0,27,0,0,0,0,0,0,0],"split_type":[0,0,0,0,0,0,0,0,0,0,0,0,0,0,0,0,0,0,0,0,0,0,0,0,0,0,0,0,0,0,0,0,0,0,0,0,0,0,0,0,0,0,0,0,0,0,0,0,0,0,0,0,0,0,0,0,0,0,0,0,0,0,0,0,0,0,0,0,0,0,0,0,0,0,0,0,0,0,0,0,0],"sum_hessian":[1.315992E2,6.708585E1,6.4513336E1,8.24442E0,5.8841434E1,3.363411E1,3.087923E1,1.4088366E0,6.8355837E0,3.7665745E1,2.1175688E1,3.248421E1,1.1498984E0,3.9825566E0,2.6896673E1,3.3579206E0,3.4776628E0,3.432776E1,3.337987E0,1.2397822E1,8.777866E0,3.7201316E0,2.8764078E1,2.4801153E1,2.0955207E0,1.0209255E0,2.3369951E0,1.4013011E0,2.0763617E0,2.435589E1,9.971868E0,1.7596542E0,1.5783327E0,8.82589E0,3.5719323E0,7.0536604E0,1.7242061E0,2.7025368E0,1.0175948E0,5.0482597E0,1.9752893E1,1.0693482E0,1.0070136E0,1.3376466E1,1.0979425E1,1.044695E0,8.927173E0,3.3576014E0,5.4682884E0,2.3777084E0,1.1942238E0,2.4843879E0,4.569272E0,1.4125739E0,3.635686E0,1.2944902E0,1.8458403E1,5.610157E0,5.3692684E0,2.189898E0,1.1677032E0,4.4393506E0,1.0289379E0,1.163699E0,1.3206888E0,3.5372813E0,1.031991E0,1.740038E1,1.0580237E0,2.5996113E0,3.0105455E0,4.064124E0,1.3051443E0,2.721584E0,1.4678795E1,1.0382024E0,1.5614089E0,1.0465829E0,1.9639627E0,1.0584844E0,1.6630995E0],"tree_param":{"num_deleted":"0","num_feature":"54","num_nodes":"81","size_leaf_vector":"0"}},{"base_weights":[-3.4667276E-2,2.96023E-1,-5.9986466E-1,8.399546E-1,5.5368245E-2,-7.213336E-1,4.830519E-1,4.4609476E-2,1.1099216E0,5.7252616E-1,-1.5318704E-1,4.6689528E-1,-8.256204E-1,1.0587454E0,-6.2158954E-1,8.7168115E-1,-6.936815E-1,1.1616968E0,2.792005E-1,-2.781058E-1,6.988844E-1,-7.0777637E-1,4.3662483E-1,7.945738E-1,-1.1245532E-1,2.9077804E-1,-8.753769E-1,1.0879352E0,2.3990081E-1,-9.121762E-1,-6.7367926E-2,1.2964953E-1,9.1716903E-1,-8.5582405E-1,2.4269043E-1,-2.0915632E-1,1.0856704E0,-1.6992382E-3,-9.1994303E-1,6.14483E-1,-6.878425E-1,9.886619E-1,2.1392575E-1,2.1124454E-1,-9.818707E-1,3.9996636E-1,-3.417883E-2,5.057401E-1,-7.033406E-1,-7.262977E-3,1.243958E0,-9.1184355E-2,-9.5616907E-1,1.2088641E-1,7.88206E-1,-1.1396239E0,-1.647809E-1,-1.369436E-1,9.783245E-1,2.7241614E-1,-9.825661E-1,-9.8384875E-1,-1.3623302E-1,-4.0558678E-1,-1.2161783E0,-6.564275E-1,4.731591E-1,-7.0148414E-1,-1.1056095E0,-8.320194E-1,9.466225E-2,-9.319574E-1,-1.7588262E-2],"categories":[],"categories_nodes":[],"categories_segments":[],"categories_sizes":[],"default_left":[1,1,1,1,1,1,1,1,1,1,1,1,1,0,0,1,1,0,0,0,1,1,1,0,0,0,1,0,0,0,0,1,1,1,1,1,1,0,1,1,0,0,0,0,1,0,0,1,1,0,0,0,1,0,0,1,1,0,0,0,0,1,0,0,0,0,0,1,0,1,0,0,0],"id":4,"left_children":[1,3,5,7,9,11,13,15,17,19,21,23,25,-1,-1,27,29,-1,-1,-1,31,33,35,-1,-1,-1,37,-1,-1,-1,-1,39,41,43,45,47,49,-1,51,53,-1,-1,-1,-1,55,-1,-1,57,59,-1,-1,-1,61,-1,-1,63,65,-1,-1,-1,-1,67,-1,-1,-1,-1,-1,69,-1,71,-1,-1,-1],"loss_changes":[1.7899351E1,7.8713074E0,4.995675E0,3.919034E0,4.726045E0,4.3715267E0,3.304914E0,4.1008816E0,2.6735115E-1,1.545424E0,1.0591562E1,7.0333374E-1,1.9172592E0,0E0,0E0,1.6850019E-1,4.2874062E-1,0E0,0E0,0E0,1.2763238E0,2.5411434E0,6.871416E0,0E0,0E0,0E0,1.1239052E0,0E0,0E0,0E0,0E0,2.1178548E0,1.8828964E-1,2.1669369E0,1.4491273E-1,3.459218E0,1.4047241E0,0E0,7.384453E-1,1.8022192E-1,0E0,0E0,0E0,0E0,1.5145502E0,0E0,0E0,1.4011694E0,1.7967916E0,0E0,0E0,0E0,4.6157455E-1,0E0,0E0,1.1927986E-1,1.3475591E0,0E0,0E0,0E0,0E0,9.1711044E-2,0E0,0E0,0E0,0E0,0E0,1.1529465E0,0E0,7.147021E-1,0E0,0E0,0E0],"parents":[2147483647,0,0,1,1,2,2,3,3,4,4,5,5,6,6,7,7,8,8,9,9,10,10,11,11,12,12,15,15,16,16,20,20,21,21,22,22,26,26,31,31,32,32,33,33,34,34,35,35,36,36,38,38,39,39,44,44,47,47,48,48,52,52,55,55,56,56,61,61,67,67,69,69],"right_children":[2,4,6,8,10,12,14,16,18,20,22,24,26,-1,-1,28,30,-1,-1,-1,32,34,36,-1,-1,-1,38,-1,-1,-1,-1,40,42,44,46,48,50,-1,52,54,-1,-1,-1,-1,56,-1,-1,58,60,-1,-1,-1,62,-1,-1,64,66,-1,-1,-1,-1,68,-1,-1,-1,-1,-1,70,-1,72,-1,-1,-1],"split_conditions":[5.23225E3,2.5825E2,4.650375E3,2.38E2,1.6545E3,4.72575E3,8.26125E2,1.6425E2,1.875E1,2.25E0,7.49875E2,1.11E2,2.4992314E3,6.3524723E-1,-3.7295374E-1,2.73375E2,5.6697815E2,6.970181E-1,1.675203E-1,-1.6686349E-1,1.789625E3,3.72125E2,8.74075E3,4.767443E-1,-6.7473195E-2,1.7446683E-1,1.76E2,6.5276116E-1,1.439405E-1,-5.4730576E-1,-4.0420756E-2,8.37875E2,1.19625E2,1.2757242E3,1.2135E3,2.0445E3,2.266335E3,-1.0195429E-3,4.4175E2,2.07455E3,-4.127055E-1,5.9319717E-1,1.2835546E-1,1.2674673E-1,1.4982111E4,2.3997982E-1,-2.0507298E-2,4.97375E2,9.5425E2,-4.3577864E-3,7.4637485E-1,-5.4710615E-2,1.2077E4,7.253185E-2,4.729236E-1,1.9313967E3,1.93973E4,-8.216616E-2,5.869947E-1,1.6344969E-1,-5.895397E-1,1.280075E4,-8.173981E-2,-2.4335207E-1,-7.29707E-1,-3.9385653E-1,2.8389546E-1,6.67175E3,-6.633657E-1,1.2061875E4,5.679735E-2,-5.591745E-1,-1.0552958E-2],"split_indices":[47,29,46,4,11,11,18,49,31,31,1,19,51,0,0,11,42,0,0,0,39,36,39,0,0,0,40,0,0,0,0,2,18,24,13,40,24,0,13,30,0,0,0,0,33,0,0,0,10,0,0,0,2,0,0,24,30,0,0,0,0,21,0,0,0,0,0,47,0,21,0,0,0],"split_type":[0,0,0,0,0,0,0,0,0,0,0,0,0,0,0,0,0,0,0,0,0,0,0,0,0,0,0,0,0,0,0,0,0,0,0,0,0,0,0,0,0,0,0,0,0,0,0,0,0,0,0,0,0,0,0,0,0,0,0,0,0,0,0,0,0,0,0,0,0,0,0,0,0],"sum_hessian":[9.381689E1,5.948763E1,3.4329254E1,1.748269E1,4.200494E1,3.1167181E1,3.1620743E0,4.725681E0,1.275701E1,1.1569833E1,3.0435104E1,2.234183E0,2.8932999E1,2.106041E0,1.0560333E0,2.1436164E0,2.5820644E0,1.1633524E1,1.1234866E0,1.3410535E0,1.022878E1,1.5582841E1,1.4852264E1,1.1897656E0,1.0444175E0,1.0278072E0,2.7905191E1,1.0590844E0,1.084532E0,1.5758832E0,1.0061812E0,3.2770233E0,6.9517565E0,1.3568884E1,2.0139565E0,7.784583E0,7.067682E0,1.4047378E0,2.6500454E1,2.2129257E0,1.0640976E0,5.941839E0,1.0099171E0,1.3620768E0,1.2206807E1,1.0008302E0,1.0131265E0,3.1722138E0,4.612369E0,1.0148094E0,6.052872E0,1.2571505E0,2.5243303E1,1.0175716E0,1.1953541E0,9.900593E0,2.3062139E0,1.6451465E0,1.5270672E0,1.0316485E0,3.5807207E0,2.4225578E1,1.0177244E0,1.5298398E0,8.370753E0,1.2860799E0,1.0201341E0,9.336141E0,1.4889438E1,7.9823117E0,1.3538291E0,6.981334E0,1.0009774E0],"tree_param":{"num_deleted":"0","num_feature":"54","num_nodes":"73","size_leaf_vector":"0"}},{"base_weights":[-2.2918893E-2,-5.43243E-1,1.4191093E-1,-9.516357E-2,-1.234493E0,7.216802E-1,-1.8917006E-1,3.9725778E-1,-7.295112E-1,-4.528153E-1,-1.3486648E0,9.6885455E-1,-3.907788E-1,-7.283076E-1,1.0197346E-1,6.289585E-1,-3.1181166E-1,-8.6095613E-1,-7.3456936E-2,1.4406429E-1,1.1846944E0,2.6735625E-1,-6.9837624E-1,3.4586662E-1,-9.243369E-1,-7.3501134E-1,2.7970102E-1,1.8731171E-1,8.969039E-1,7.1006936E-1,-5.1135665E-1,1.2894106E0,3.241203E-1,-1.0106763E0,-1.9486791E-1,7.1668106E-1,-1.406907E0,5.294322E-1,-5.6866825E-1,-2.4744518E-1,6.217704E-1,-1.631226E-1,-1.0929834E0,2.4947701E-1,1.3536042E0,-9.1100776E-1,3.572228E-1,8.0282843E-1,-3.7556422E-1,1.4853768E-1,1.7054834E0,-1.1675076E0,-1.4966898E-1,1.0129297E0,-2.846688E-1,6.3625395E-1,-6.7680335E-1,1.1976078E0,2.8813577E-1,-8.030372E-2,-8.0522966E-1],"categories":[],"categories_nodes":[],"categories_segments":[],"categories_sizes":[],"default_left":[1,1,1,1,1,1,1,1,1,0,0,1,1,1,1,1,0,0,0,1,1,0,0,0,1,1,1,1,0,0,0,0,0,1,0,0,0,1,1,0,0,0,0,1,1,1,0,1,1,0,0,0,0,1,0,0,1,0,0,0,0],"id":5,"left_children":[1,3,5,7,9,11,13,15,17,-1,-1,19,21,23,25,27,-1,-1,-1,29,31,-1,-1,-1,33,35,37,39,-1,-1,-1,-1,-1,41,-1,-1,-1,43,45,-1,-1,-1,-1,47,49,51,-1,53,55,-1,-1,-1,-1,57,-1,-1,59,-1,-1,-1,-1],"loss_changes":[6.346906E0,5.393993E0,1.0945351E1,4.000571E0,6.4020157E-3,6.063842E0,5.8246922E0,1.4012585E0,4.1485763E-1,0E0,0E0,2.8921032E0,1.0918939E0,3.050582E0,3.874739E0,5.2547836E-1,0E0,0E0,0E0,2.1092074E0,7.9842186E-1,0E0,0E0,0E0,5.109587E-1,5.491042E0,4.7650194E0,8.1056726E-1,0E0,0E0,0E0,0E0,0E0,5.061512E-1,0E0,0E0,0E0,3.5376658E0,1.9970844E0,0E0,0E0,0E0,0E0,5.061777E0,1.4567018E0,6.3215804E-1,0E0,2.0291715E0,2.6081846E0,0E0,0E0,0E0,0E0,5.389948E-1,0E0,0E0,3.9419317E-1,0E0,0E0,0E0,0E0],"parents":[2147483647,0,0,1,1,2,2,3,3,4,4,5,5,6,6,7,7,8,8,11,11,12,12,13,13,14,14,15,15,19,19,20,20,24,24,25,25,26,26,27,27,33,33,37,37,38,38,43,43,44,44,45,45,47,47,48,48,53,53,56,56],"right_children":[2,4,6,8,10,12,14,16,18,-1,-1,20,22,24,26,28,-1,-1,-1,30,32,-1,-1,-1,34,36,38,40,-1,-1,-1,-1,-1,42,-1,-1,-1,44,46,-1,-1,-1,-1,48,50,52,-1,54,56,-1,-1,-1,-1,58,-1,-1,60,-1,-1,-1,-1],"split_conditions":[1.205E2,1.00125E2,3.25875E2,5.218375E3,1.245E2,9.525E1,6.6675E2,3.5E0,1.08725E3,-2.7168918E-1,-8.091989E-1,1.915E2,3.1476335E3,3.7325E2,2.226875E3,5.5E0,-1.87087E-1,-5.165737E-1,-4.4074163E-2,1.3925E2,1.925E0,1.6041376E-1,-4.1902575E-1,2.0751998E-1,2.73725E3,8.8325E2,9.255625E3,3.7263586E3,5.381423E-1,4.2604163E-1,-3.0681401E-1,7.736464E-1,1.944722E-1,1.3535757E3,-1.1692075E-1,4.3000865E-1,-8.441442E-1,1.892375E3,7.178375E3,-1.4846711E-1,3.7306225E-1,-9.787356E-2,-6.5579003E-1,9.825E1,2.1389343E3,7.82175E3,2.1433368E-1,3.233E3,1.15E1,8.912261E-2,1.0232902E0,-7.005046E-1,-8.9801386E-2,2.69727E4,-1.7080128E-1,3.817524E-1,7.405125E3,7.185647E-1,1.7288147E-1,-4.8182234E-2,-4.8313782E-1],"split_indices":[1,46,10,3,46,18,1,18,4,0,0,1,6,40,38,19,0,0,0,10,27,0,0,0,13,22,38,33,0,0,0,0,0,24,0,0,0,1,1,0,0,0,0,45,6,22,0,22,18,0,0,0,0,30,0,0,21,0,0,0,0],"split_type":[0,0,0,0,0,0,0,0,0,0,0,0,0,0,0,0,0,0,0,0,0,0,0,0,0,0,0,0,0,0,0,0,0,0,0,0,0,0,0,0,0,0,0,0,0,0,0,0,0,0,0,0,0,0,0,0,0,0,0,0,0],"sum_hessian":[7.210464E1,1.6794155E1,5.5310486E1,1.0879534E1,5.9146214E0,1.9675737E1,3.5634747E1,6.3353686E0,4.544165E0,1.3866949E0,4.5279264E0,1.620441E1,3.4713278E0,1.1969034E1,2.3665714E1,4.860195E0,1.4751732E0,3.525486E0,1.0186794E0,3.7068524E0,1.2497558E1,1.1473287E0,2.323999E0,1.7292066E0,1.0239827E1,3.5958622E0,2.006985E1,2.476808E0,2.383387E0,1.9443669E0,1.7624856E0,1.0697547E1,1.8000104E0,8.811419E0,1.4284087E0,1.1166283E0,2.4792337E0,1.5795989E1,4.273863E0,1.4531312E0,1.0236769E0,1.0438895E0,7.767529E0,1.2763259E1,3.03273E0,3.131934E0,1.1419289E0,6.6189957E0,6.144263E0,1.0068247E0,2.0259054E0,1.9436222E0,1.1883117E0,5.604744E0,1.0142517E0,1.1544641E0,4.989799E0,3.946763E0,1.657981E0,1.1719153E0,3.8178837E0],"tree_param":{"num_deleted":"0","num_feature":"54","num_nodes":"61","size_leaf_vector":"0"}},{"base_weights":[-8.474363E-2,1.5916833E-1,-4.0000847E-1,-4.973041E-1,3.4342784E-1,-8.4066325E-1,-1.7154555E-1,1.7160203E-1,-1.0448215E0,9.502443E-1,1.7314313E-1,-2.208637E-1,-9.378157E-1,9.2786986E-1,-4.5107013E-1,-4.6182513E-1,8.08849E-1,-1.5841012E0,-2.5558335E-1,-4.8473877E-1,4.513173E-1,1.2270619E0,1.5015104E-1,-7.6649696E-1,-5.3256523E-2,1.4448396E-2,-4.001999E-1,2.6536503E-1,-1.02285E0,7.210062E-1,-2.8957334E-1,-9.0370035E-1,6.330084E-2,6.0799044E-1,-4.619758E-1,-3.172496E-1,6.587358E-1,-1.016721E-1,-1.3208699E0,8.8558215E-1,-4.9426052E-1,3.3237025E-1,-5.855081E-1,-1.6594064E-1,-9.98488E-1,7.691409E-1,1.0598378E-1,-6.9359547E-1,1.8045226E-1,1.4062764E-1,1.0459394E0,-7.0534766E-1,-1.2902385E-1,-2.1669699E-1,-9.415403E-1,6.64574E-1,-4.8803002E-1,3.0687648E-1,1.1534324E0],"categories":[],"categories_nodes":[],"categories_segments":[],"categories_sizes":[],"default_left":[1,1,1,1,1,1,1,1,1,0,1,0,0,1,1,0,0,0,1,1,1,0,0,1,1,0,0,1,1,1,1,1,0,1,1,0,0,0,0,1,0,0,1,0,0,0,0,1,0,1,1,0,0,0,0,0,0,0,0],"id":6,"left_children":[1,3,5,7,9,11,13,15,17,-1,19,-1,-1,21,23,-1,-1,-1,25,27,29,-1,-1,31,33,-1,-1,35,37,39,41,43,-1,45,47,-1,-1,-1,-1,49,-1,-1,51,-1,-1,-1,-1,53,-1,55,57,-1,-1,-1,-1,-1,-1,-1,-1],"loss_changes":[4.6640596E0,4.337306E0,2.5115905E0,3.0936875E0,2.675787E0,3.19808E-1,6.143628E0,2.1660347E0,1.5176358E0,0E0,4.370612E0,0E0,0E0,7.70586E-1,1.907397E0,0E0,0E0,0E0,1.2394801E-1,3.1873927E0,3.4982083E0,0E0,0E0,1.0346208E0,2.4270346E0,0E0,0E0,1.0825582E0,1.077065E0,2.9089441E0,1.1345366E0,3.5406256E-1,0E0,1.9880974E-1,9.3995464E-1,0E0,0E0,0E0,0E0,1.1956825E0,0E0,0E0,1.1809814E-1,0E0,0E0,0E0,0E0,2.9628587E-1,0E0,1.3606855E0,3.685112E-1,0E0,0E0,0E0,0E0,0E0,0E0,0E0,0E0],"parents":[2147483647,0,0,1,1,2,2,3,3,4,4,5,5,6,6,7,7,8,8,10,10,13,13,14,14,18,18,19,19,20,20,23,23,24,24,27,27,28,28,29,29,30,30,31,31,33,33,34,34,39,39,42,42,47,47,49,49,50,50],"right_children":[2,4,6,8,10,12,14,16,18,-1,20,-1,-1,22,24,-1,-1,-1,26,28,30,-1,-1,32,34,-1,-1,36,38,40,42,44,-1,46,48,-1,-1,-1,-1,50,-1,-1,52,-1,-1,-1,-1,54,-1,56,58,-1,-1,-1,-1,-1,-1,-1,-1],"split_conditions":[4.81175E3,7.3554974E2,2.9075E2,8.2125E1,2.855875E3,3.757457E3,1.2075E2,2.0238086E2,5E1,5.701466E-1,1.8709907E3,-1.3251823E-1,-5.626895E-1,6.48625E2,7.395E2,-2.7709508E-1,4.853094E-1,-9.5046073E-1,5.8625E1,1.5842029E3,1.3011625E4,7.3623717E-1,9.009063E-2,1.958425E4,3.95E0,8.669038E-3,-2.4011995E-1,3.475E1,1.2359268E3,3.4865E3,2.97825E3,8.75E-1,3.7980504E-2,2.5425E3,6.6895E3,-1.9034977E-1,3.952415E-1,-6.100326E-2,-7.92522E-1,2.3505078E3,-2.9655632E-1,1.9942217E-1,5.83875E2,-9.956439E-2,-5.9909284E-1,4.6148455E-1,6.359027E-2,1.1893E4,1.0827136E-1,1.0371634E4,1.783375E3,-4.2320862E-1,-7.741431E-2,-1.300182E-1,-5.649242E-1,3.9874443E-1,-2.92818E-1,1.841259E-1,6.9205946E-1],"split_indices":[47,51,1,10,3,6,19,5,9,0,51,0,0,46,31,0,0,0,18,42,3,0,0,12,27,0,0,31,51,49,11,18,0,40,31,0,0,0,0,51,0,0,10,0,0,0,0,3,0,33,38,0,0,0,0,0,0,0,0],"split_type":[0,0,0,0,0,0,0,0,0,0,0,0,0,0,0,0,0,0,0,0,0,0,0,0,0,0,0,0,0,0,0,0,0,0,0,0,0,0,0,0,0,0,0,0,0,0,0,0,0,0,0,0,0,0,0,0,0,0,0],"sum_hessian":[5.8825466E1,3.3445053E1,2.5380411E1,6.9576564E0,2.6487396E1,7.7509274E0,1.7629484E1,3.440704E0,3.5169525E0,4.8004546E0,2.1686941E1,1.4938767E0,6.257051E0,3.1034915E0,1.4525992E1,1.8635777E0,1.5771264E0,1.4910227E0,2.0259297E0,6.2241817E0,1.5462761E1,1.8240143E0,1.2794774E0,7.5850353E0,6.940957E0,1.0205063E0,1.0054235E0,2.8116798E0,3.4125016E0,1.1355958E1,4.1068025E0,6.4324045E0,1.1526304E0,2.4651544E0,4.475803E0,1.2112412E0,1.6004387E0,1.1619813E0,2.2505202E0,1.0240445E1,1.1155132E0,1.2843859E0,2.8224163E0,1.045515E0,5.3868895E0,1.4632878E0,1.0018667E0,3.2311897E0,1.2446129E0,2.1463485E0,8.094096E0,1.8037173E0,1.018699E0,1.7463067E0,1.4848832E0,1.1395085E0,1.00684E0,1.5172392E0,6.576857E0],"tree_param":{"num_deleted":"0","num_feature":"54","num_nodes":"59","size_leaf_vector":"0"}},{"base_weights":[-5.7684783E-2,9.011982E-1,-1.4673275E-1,-1.0958948E0,-3.135031E-2,-1.4092399E0,1.3338723E-2,-3.0216876E-1,1.7525285E-1,-3.921584E-1,-1.627036E0,2.790034E-1,-5.400702E-1,5.3746885E-1,-1.9598973E-1,-4.5618036E-1,6.3198924E-1,2.908889E-1,-7.513025E-1,-2.9183272E-2,1.0373102E0,-3.2945788E-1,6.742868E-1,8.403738E-1,-5.471668E-2,-3.7676102E-1,7.789732E-1,1.0521703E-2,-9.151583E-1,6.2848455E-1,-4.5639586E-1,1.2892147E0,1.9942336E-1,2.164189E-1,-7.110513E-1,-1.0724049E0,-2.0355275E-1,8.5015E-1,8.814237E-2,-1.1701108E0,4.7480792E-1,-5.332408E-1,5.473828E-1,2.0707977E-1,-8.9716244E-1,-3.3278117E-1,-1.1427965E0,-2.1351472E-1,8.4980637E-1,-2.845003E-1,-1.0676055E0,2.4737826E-1,1.0695131E0],"categories":[],"categories_nodes":[],"categories_segments":[],"categories_sizes":[],"default_left":[1,0,1,1,1,1,0,1,1,0,0,1,1,1,1,0,1,1,1,1,1,1,0,0,0,0,0,0,1,1,1,0,0,1,1,1,0,0,0,0,0,0,1,0,1,0,0,0,1,0,0,0,0],"id":7,"left_children":[1,-1,3,5,7,9,-1,11,13,-1,-1,15,17,19,21,-1,23,25,27,29,31,33,-1,-1,-1,-1,-1,-1,35,37,39,-1,-1,41,43,45,-1,-1,-1,-1,-1,-1,47,-1,49,-1,-1,-1,51,-1,-1,-1,-1],"loss_changes":[4.431086E0,0E0,5.1049957E0,1.7764301E0,2.4516556E0,2.374649E-1,0E0,2.7664948E0,3.4605565E0,0E0,0E0,1.8854542E0,2.634614E0,3.6830165E0,1.7385378E0,0E0,7.0098877E-1,1.4375316E0,1.4144626E0,2.2583382E0,1.1949487E0,2.651607E0,0E0,0E0,0E0,0E0,0E0,0E0,8.1936884E-1,3.0641365E-1,3.7676923E0,0E0,0E0,1.7061381E0,1.4315813E0,2.9239655E-3,0E0,0E0,0E0,0E0,0E0,0E0,1.2049389E0,0E0,3.488593E-1,0E0,0E0,0E0,1.8326569E-1,0E0,0E0,0E0,0E0],"parents":[2147483647,0,0,2,2,3,3,4,4,5,5,7,7,8,8,11,11,12,12,13,13,14,14,16,16,17,17,18,18,19,19,20,20,21,21,28,28,29,29,30,30,33,33,34,34,35,35,42,42,44,44,48,48],"right_children":[2,-1,4,6,8,10,-1,12,14,-1,-1,16,18,20,22,-1,24,26,28,30,32,34,-1,-1,-1,-1,-1,-1,36,38,40,-1,-1,42,44,46,-1,-1,-1,-1,-1,-1,48,-1,50,-1,-1,-1,52,-1,-1,-1,-1],"split_conditions":[2.67625E2,5.40719E-1,1.3725E2,1.6099875E4,4.82E2,7.875E0,8.003234E-3,1.3544474E3,1.0425E2,-2.3529504E-1,-9.762216E-1,2.1615752E3,1.375E0,8.446625E3,2.00275E3,-2.7370822E-1,1.2675E2,4.531875E3,8.3E1,8.8875E1,5.7275E2,2.48375E2,4.045721E-1,5.042243E-1,-3.283001E-2,-2.2605662E-1,4.6738395E-1,6.313022E-3,1.4906E4,5E-1,2.57625E2,7.735289E-1,1.1965402E-1,2.48E2,8.2325E2,1.571875E3,-1.2213165E-1,5.1009E-1,5.2885424E-2,-7.0206654E-1,2.8488475E-1,-3.199445E-1,8.16875E2,1.24247864E-1,2.7878374E3,-1.996687E-1,-6.8567795E-1,-1.2810883E-1,5.645875E3,-1.7070019E-1,-6.405633E-1,1.4842696E-1,6.417079E-1],"split_indices":[20,0,40,39,1,19,0,24,18,0,0,30,36,39,0,0,31,20,10,36,19,0,0,0,0,0,0,0,12,28,0,0,0,18,22,11,0,0,0,0,0,0,1,0,24,0,0,0,11,0,0,0,0],"split_type":[0,0,0,0,0,0,0,0,0,0,0,0,0,0,0,0,0,0,0,0,0,0,0,0,0,0,0,0,0,0,0,0,0,0,0,0,0,0,0,0,0,0,0,0,0,0,0,0,0,0,0,0,0],"sum_hessian":[4.934574E1,3.4181526E0,4.592759E1,4.0568757E0,4.1870712E1,2.9523966E0,1.1044791E0,1.791929E1,2.3951424E1,1.0146549E0,1.9377418E0,5.154509E0,1.276478E1,1.18964615E1,1.2054961E1,1.577212E0,3.5772972E0,2.5107458E0,1.0254035E1,6.0169163E0,5.8795457E0,1.0990811E1,1.06415E0,2.572794E0,1.0045034E0,1.1566491E0,1.3540968E0,1.9807242E0,8.273311E0,2.1838632E0,3.8330529E0,4.106351E0,1.7731948E0,4.700093E0,6.2907186E0,6.3607306E0,1.9125797E0,1.1420168E0,1.0418463E0,2.0246875E0,1.8083655E0,1.2523175E0,3.4477751E0,1.041261E0,5.249458E0,1.0504931E0,5.3102374E0,1.0642105E0,2.3835645E0,1.7234936E0,3.5259643E0,1.2051188E0,1.1784457E0],"tree_param":{"num_deleted":"0","num_feature":"54","num_nodes":"53","size_leaf_vector":"0"}},{"base_weights":[-1.35707455E-2,-2.9361308E-1,2.4552989E-1,2.7011913E-1,-6.258872E-1,9.5895225E-1,-3.659918E-2,-3.094873E-1,7.481791E-1,-1.1557752E0,-9.398831E-2,2.2483507E-1,1.0612422E0,-3.142404E-1,5.867325E-1,-5.8139306E-1,1.6087884E-1,5.8660436E-2,9.065338E-1,-1.6947838E0,-4.6765602E-1,2.72477E-1,-6.271995E-1,1.1855276E0,2.3702288E-1,-1.0196768E0,-3.3982534E-2,9.2019767E-1,-2.9449588E-1,-7.0207334E-1,-1.7516357E-1,2.2578947E-1,-7.4100196E-1,6.371026E-1,-3.3523604E-1,1.8048777E-3,-8.794634E-1,3.7448525E-1,-6.43047E-1,7.883485E-2,1.1505764E0,8.6420053E-1,1.7566407E-1,7.97786E-1,-4.84311E-2,-8.9775574E-1,-1.660866E-1,4.6295127E-1,-3.3578396E-1,-6.113149E-1,1.1097331E-1],"categories":[],"categories_nodes":[],"categories_segments":[],"categories_sizes":[],"default_left":[1,1,1,1,1,1,1,1,1,1,1,0,1,1,1,1,0,0,0,0,1,1,1,0,0,0,1,1,0,0,0,0,0,1,0,0,0,1,1,0,0,0,0,0,1,0,0,0,1,0,0],"id":8,"left_children":[1,3,5,7,9,11,13,15,17,19,21,-1,23,25,27,29,-1,-1,-1,-1,31,33,35,-1,-1,-1,37,39,-1,-1,-1,-1,-1,41,-1,-1,-1,43,45,-1,-1,-1,-1,-1,47,-1,-1,-1,49,-1,-1],"loss_changes":[3.348735E0,4.319466E0,4.8659E0,2.7018895E0,3.9054642E0,2.7490473E-1,3.3276103E0,6.993867E-1,5.1223254E-1,1.8208075E0,1.7724403E0,0E0,3.0630493E-1,2.5783572E0,2.0181792E0,3.4808993E-2,0E0,0E0,0E0,0E0,1.0157425E0,1.4444358E0,5.7938266E-1,0E0,0E0,0E0,2.851388E0,7.9236746E-1,0E0,0E0,0E0,0E0,0E0,2.4812627E-1,0E0,0E0,0E0,1.2762069E0,4.0734792E-1,0E0,0E0,0E0,0E0,0E0,8.0214167E-1,0E0,0E0,0E0,4.8601893E-1,0E0,0E0],"parents":[2147483647,0,0,1,1,2,2,3,3,4,4,5,5,6,6,7,7,8,8,9,9,10,10,12,12,13,13,14,14,15,15,20,20,21,21,22,22,26,26,27,27,33,33,37,37,38,38,44,44,48,48],"right_children":[2,4,6,8,10,12,14,16,18,20,22,-1,24,26,28,30,-1,-1,-1,-1,32,34,36,-1,-1,-1,38,40,-1,-1,-1,-1,-1,42,-1,-1,-1,44,46,-1,-1,-1,-1,-1,48,-1,-1,-1,50,-1,-1],"split_conditions":[5.415E2,4.32E2,1.51625E3,2.085E2,5.7175E2,4.07E2,7.515E2,2.2625E1,1.0625E2,1.2242955E3,2.1625E1,1.3490105E-1,6.315E2,1.3565E3,5.5405E3,3.82125E2,9.652731E-2,3.5196263E-2,5.439203E-1,-1.0168704E0,5.51E2,1.88975E3,1.905E2,7.113166E-1,1.4221373E-1,-6.118061E-1,2.80625E2,1.74328E4,-1.7669754E-1,-4.2124403E-1,-1.0509814E-1,1.3547368E-1,-4.446012E-1,1.38E2,-2.0114164E-1,1.0829266E-3,-5.276781E-1,6.85E1,1.79375E2,4.730091E-2,6.903458E-1,5.1852036E-1,1.0539845E-1,4.786716E-1,4.207125E3,-5.386535E-1,-9.965196E-2,2.777708E-1,5.576625E3,-3.6678895E-1,6.658399E-2],"split_indices":[1,13,13,4,22,40,45,0,46,51,36,0,10,29,40,47,0,0,0,0,40,49,19,0,0,0,36,30,0,0,0,0,0,19,0,0,0,0,0,0,0,0,0,0,47,0,0,0,20,0,0],"split_type":[0,0,0,0,0,0,0,0,0,0,0,0,0,0,0,0,0,0,0,0,0,0,0,0,0,0,0,0,0,0,0,0,0,0,0,0,0,0,0,0,0,0,0,0,0,0,0,0,0,0,0],"sum_hessian":[4.4158253E1,2.1157503E1,2.300075E1,7.915397E0,1.3242106E1,5.8383293E0,1.716242E1,3.7371018E0,4.1782956E0,6.046021E0,7.1960855E0,1.1051167E0,4.7332125E0,1.2216763E1,4.945658E0,2.2185662E0,1.5185357E0,1.0363196E0,3.1419759E0,2.5699997E0,3.4760213E0,4.5547123E0,2.6413734E0,3.7320817E0,1.001131E0,2.7233849E0,9.493378E0,3.5558643E0,1.389794E0,1.1489695E0,1.0695968E0,1.0319835E0,2.4440377E0,2.8164759E0,1.7382362E0,1.0402986E0,1.6010747E0,5.91299E0,3.5803876E0,1.0528743E0,2.50299E0,1.3025724E0,1.5139036E0,2.5121577E0,3.4008327E0,1.7588657E0,1.8215219E0,1.0036376E0,2.397195E0,1.2549101E0,1.1422851E0],"tree_param":{"num_deleted":"0","num_feature":"54","num_nodes":"51","size_leaf_vector":"0"}},{"base_weights":[4.2699125E-2,-4.6373442E-1,1.6145349E-1,-1.3945961E0,-3.4444995E-2,5.385457E-1,-8.080777E-2,4.1671127E-1,-4.7708786E-1,7.0276487E-1,-3.5718164E-1,-5.614606E-1,2.0876989E-1,-2.878258E-1,7.9520977E-1,-6.787964E-1,2.873019E-2,8.732641E-1,-3.6009225E-1,-8.865397E-1,1.5967256E-1,6.546173E-1,-2.2690792E-1,9.970752E-1,1.9541678E-1,1.7589189E-1,-1.2321875E0,4.8708275E-1,-2.7992E-1,-1.9938321E-1,9.7897154E-1,-6.6357994E-1,2.3709911E-1,4.6044624E-1,1.1421354E0,-1.6201949E0,-3.8631436E-1,1.1270403E0,2.4364121E-1,-8.3041584E-1,-8.399801E-2,6.16173E-1,-3.0040193E-1,6.524801E-2,6.0705566E-1],"categories":[],"categories_nodes":[],"categories_segments":[],"categories_sizes":[],"default_left":[1,1,1,0,1,1,1,1,1,1,0,1,1,0,0,0,0,1,0,1,1,1,1,1,0,0,1,0,0,0,1,1,1,1,0,0,0,0,0,0,0,0,0,0,0],"id":9,"left_children":[1,3,5,-1,7,9,11,13,15,17,-1,19,21,-1,-1,-1,-1,23,-1,25,27,29,31,33,-1,-1,35,-1,-1,-1,37,39,41,43,-1,-1,-1,-1,-1,-1,-1,-1,-1,-1,-1],"loss_changes":[2.4497998E0,3.052617E0,3.0335617E0,0E0,1.4640315E0,2.1533818E0,3.0118914E0,1.2079189E0,3.933515E-1,2.3560643E0,0E0,2.038053E0,2.8110926E0,0E0,0E0,0E0,0E0,6.4446115E-1,0E0,2.3205328E0,6.2009746E-1,2.14302E0,1.7124809E0,1.13386154E-1,0E0,0E0,8.337889E-1,0E0,0E0,0E0,2.9871225E-1,3.3804202E-1,1.0934088E0,1.5871876E-1,0E0,0E0,0E0,0E0,0E0,0E0,0E0,0E0,0E0,0E0,0E0],"parents":[2147483647,0,0,1,1,2,2,4,4,5,5,6,6,7,7,8,8,9,9,11,11,12,12,17,17,19,19,20,20,21,21,22,22,23,23,26,26,30,30,31,31,32,32,33,33],"right_children":[2,4,6,-1,8,10,12,14,16,18,-1,20,22,-1,-1,-1,-1,24,-1,26,28,30,32,34,-1,-1,36,-1,-1,-1,38,40,42,44,-1,-1,-1,-1,-1,-1,-1,-1,-1,-1,-1],"split_conditions":[9.525E1,9.38014E2,2.7275E2,-8.367577E-1,2.928375E3,1.3918375E4,1.0995E3,2.6E1,6.1775E3,2.28875E2,-2.1430899E-1,1.6325E2,4.543875E3,-1.7269549E-1,4.7712588E-1,-4.0727785E-1,1.7238114E-2,5.395E2,-2.1605536E-1,2.075E1,1.8625E2,9.8E1,3.03625E2,2.125E2,1.1725007E-1,1.0553514E-1,1.716625E3,2.9224965E-1,-1.6795202E-1,-1.19629934E-1,4.75E-1,3.43975E3,1.4792625E4,1.70375E2,6.852813E-1,-9.72117E-1,-2.3178862E-1,6.762242E-1,1.4618473E-1,-4.9824953E-1,-5.0398808E-2,3.6970383E-1,-1.8024117E-1,3.9148808E-2,3.642334E-1],"split_indices":[1,42,37,0,11,3,22,40,38,18,0,31,29,0,0,0,0,10,0,31,45,0,36,40,0,0,20,0,0,0,27,13,47,1,0,0,0,0,0,0,0,0,0,0,0],"split_type":[0,0,0,0,0,0,0,0,0,0,0,0,0,0,0,0,0,0,0,0,0,0,0,0,0,0,0,0,0,0,0,0,0,0,0,0,0,0,0,0,0,0,0,0,0],"sum_hessian":[3.848921E1,6.759218E0,3.172999E1,1.4236317E0,5.3355865E0,1.1932867E1,1.9797123E1,2.6713955E0,2.6641912E0,1.0266139E1,1.6667281E0,7.089983E0,1.270714E1,1.0173182E0,1.6540773E0,1.6601746E0,1.0040168E0,9.000669E0,1.2654704E0,4.7288833E0,2.3611E0,6.0319085E0,6.6752315E0,7.2123623E0,1.7883065E0,1.2813793E0,3.447504E0,1.2913015E0,1.0697984E0,1.7664002E0,4.265508E0,3.2173297E0,3.4579017E0,2.423E0,4.7893624E0,1.735848E0,1.711656E0,3.1071436E0,1.1583647E0,2.1621566E0,1.0551732E0,1.941962E0,1.5159397E0,1.0466667E0,1.3763334E0],"tree_param":{"num_deleted":"0","num_feature":"54","num_nodes":"45","size_leaf_vector":"0"}},{"base_weights":[-1.0243032E-1,5.9246577E-2,-5.5589706E-1,-1.8693668E-1,7.2502923E-1,3.983926E-1,-7.0263827E-1,-6.58258E-1,4.0404058E-1,1.0918828E0,-2.9536667E-1,-8.654082E-1,2.7442896E-1,4.1153416E-1,-7.868618E-1,7.7621055E-1,-4.706824E-1,3.0783927E-1,1.3433444E0,-1.3105816E-1,-9.544363E-1,4.1144273E-1,-9.52231E-1,9.986327E-1,-2.609217E-1,-1.76389E-2,-6.349142E-1,-1.0981017E0,-6.275361E-2,-1.7324644E-1,-1.2119594E0,-3.5864484E-1,-1.2846361E0],"categories":[],"categories_nodes":[],"categories_segments":[],"categories_sizes":[],"default_left":[1,1,1,1,1,0,1,1,1,1,0,1,0,0,1,1,1,0,0,0,0,0,1,0,0,0,0,1,0,0,1,0,0],"id":10,"left_children":[1,3,5,7,9,-1,11,13,15,17,-1,19,-1,-1,21,23,25,-1,-1,-1,-1,-1,27,-1,-1,-1,-1,29,-1,-1,31,-1,-1],"loss_changes":[2.8764012E0,4.969785E0,1.720855E0,6.4850416E0,3.3796735E0,0E0,1.7134094E0,2.085043E0,3.7920058E0,8.128028E-1,0E0,4.1073895E-1,0E0,0E0,2.7243915E0,2.0510268E0,2.6887745E-1,0E0,0E0,0E0,0E0,0E0,1.3123169E0,0E0,0E0,0E0,0E0,7.4669456E-1,0E0,0E0,3.0583382E-2,0E0,0E0],"parents":[2147483647,0,0,1,1,2,2,3,3,4,4,6,6,7,7,8,8,9,9,11,11,14,14,15,15,16,16,22,22,27,27,30,30],"right_children":[2,4,6,8,10,-1,12,14,16,18,-1,20,-1,-1,22,24,26,-1,-1,-1,-1,-1,28,-1,-1,-1,-1,30,-1,-1,32,-1,-1],"split_conditions":[6.6726123E3,2.463E3,1.375E2,1.24E2,1.475E0,2.3903556E-1,7.0375E1,4.4954828E2,1.902E3,2.8683618E3,-1.7722002E-1,3.96E2,1.6465738E-1,2.4692051E-1,9.375E0,1.8425E1,6.3875E1,1.8470357E-1,8.060067E-1,-7.8634895E-2,-5.726618E-1,2.4686565E-1,1.31E2,5.991797E-1,-1.5655302E-1,-1.058334E-2,-3.8094854E-1,3.95E1,-3.765217E-2,-1.0394787E-1,4.12875E2,-2.1518691E-1,-7.707817E-1],"split_indices":[42,4,22,31,27,0,27,24,40,15,0,22,0,0,29,27,18,0,0,0,0,0,0,0,0,0,0,22,0,0,20,0,0],"split_type":[0,0,0,0,0,0,0,0,0,0,0,0,0,0,0,0,0,0,0,0,0,0,0,0,0,0,0,0,0,0,0,0,0],"sum_hessian":[3.7784187E1,2.8494307E1,9.289879E0,2.13274E1,7.166908E0,1.00956E0,8.280319E0,1.180151E1,9.525889E0,5.220111E0,1.9467969E0,7.1958413E0,1.0844778E0,1.0303673E0,1.0771143E1,6.7616286E0,2.7642612E0,1.8077732E0,3.4123375E0,1.0453498E0,6.150491E0,1.1257403E0,9.645402E0,5.598172E0,1.1634563E0,1.030092E0,1.7341691E0,8.084955E0,1.560447E0,1.1626298E0,6.9223256E0,1.0090951E0,5.9132304E0],"tree_param":{"num_deleted":"0","num_feature":"54","num_nodes":"33","size_leaf_vector":"0"}},{"base_weights":[4.4923633E-2,-2.100806E-1,2.8377065E-1,6.3739944E-1,-3.371101E-1,4.135588E-1,-5.195461E-1,-4.3810552E-1,4.7822332E-1,2.2202668E-1,8.720756E-1,-1.0823374E0,3.0323875E-1,-3.7725046E-2,-6.1396444E-1,3.8331398E-1,-4.570664E-1,5.570885E-1,-4.69814E-1,-9.7699285E-1,-3.0305183E-1,5.7752955E-1,-3.428248E-1,-8.6831707E-1,2.9739165E-1,-1.4092484E-1,-1.2321041E0,2.3767643E-1,-6.4028174E-1,7.145955E-1,-1.8928958E-1,4.9042362E-1,-1.5269257E-1,-1.3292423E-1,-7.728621E-1,1.0245491E-1,9.031712E-1,1.0431329E0,2.02613E-1],"categories":[],"categories_nodes":[],"categories_segments":[],"categories_sizes":[],"default_left":[1,1,1,0,1,1,1,1,0,1,0,0,0,1,1,1,0,0,1,1,1,1,0,0,0,0,0,1,1,1,0,0,0,0,0,0,1,0,0],"id":11,"left_children":[1,3,5,-1,7,9,11,13,-1,15,-1,-1,-1,17,19,21,-1,-1,23,25,27,29,-1,-1,-1,-1,-1,31,33,35,-1,-1,-1,-1,-1,-1,37,-1,-1],"loss_changes":[2.187242E0,2.095538E0,2.1398363E0,0E0,1.5143719E0,1.2511799E0,1.7225986E0,1.0063539E0,0E0,1.5931542E0,0E0,0E0,0E0,1.6824281E0,8.4321713E-1,1.7500254E0,0E0,0E0,1.4030007E0,7.2367525E-1,1.4080024E0,1.0870247E0,0E0,0E0,0E0,0E0,0E0,4.078365E-1,2.007904E-1,8.184309E-1,0E0,0E0,0E0,0E0,0E0,0E0,3.67651E-1,0E0,0E0],"parents":[2147483647,0,0,1,1,2,2,4,4,5,5,6,6,7,7,9,9,13,13,14,14,15,15,18,18,19,19,20,20,21,21,27,27,28,28,29,29,36,36],"right_children":[2,4,6,-1,8,10,12,14,-1,16,-1,-1,-1,18,20,22,-1,-1,24,26,28,30,-1,-1,-1,-1,-1,32,34,36,-1,-1,-1,-1,-1,-1,38,-1,-1],"split_conditions":[5.1875E1,1.6275E2,3.298026E4,3.8243967E-1,6.8625E1,5.27508E3,1.01959375E5,3.75E-1,2.8693402E-1,5.6542227E3,5.232454E-1,-6.4940244E-1,1.8194325E-1,1.855875E3,4.52E2,2.50987E4,-2.7423984E-1,3.342531E-1,2.6025E3,6.9E1,1.0875E1,3.5975E1,-2.0569488E-1,-5.2099025E-1,1.78435E-1,-8.455491E-2,-7.3926246E-1,5.6675E2,2.1875E1,3.4775E2,-1.1357375E-1,2.9425418E-1,-9.161554E-2,-7.975454E-2,-4.6371725E-1,6.147295E-2,3.16375E2,6.2587976E-1,1.215678E-1],"split_indices":[45,49,42,0,9,15,21,0,0,42,0,0,0,11,4,30,0,0,4,1,36,27,0,0,0,0,0,10,18,22,0,0,0,0,0,0,36,0,0],"split_type":[0,0,0,0,0,0,0,0,0,0,0,0,0,0,0,0,0,0,0,0,0,0,0,0,0,0,0,0,0,0,0,0,0,0,0,0,0,0,0],"sum_hessian":[3.3932392E1,1.6469368E1,1.7463026E1,1.6230993E0,1.4846268E1,1.5451746E1,2.0112808E0,1.3621624E1,1.2246442E0,1.1945913E1,3.505832E0,1.0070171E0,1.0042638E0,4.5277505E0,9.093873E0,1.0005191E1,1.9407228E0,1.783413E0,2.7443373E0,3.2069862E0,5.886887E0,8.055339E0,1.9498516E0,1.7194343E0,1.0249029E0,1.1127173E0,2.094269E0,2.374587E0,3.5123003E0,6.8915973E0,1.163742E0,1.2857872E0,1.0887998E0,1.1425586E0,2.3697417E0,1.9864945E0,4.9051027E0,3.68074E0,1.2243625E0],"tree_param":{"num_deleted":"0","num_feature":"54","num_nodes":"39","size_leaf_vector":"0"}},{"base_weights":[-9.922813E-2,-2.4573712E-1,4.8503736E-1,-6.0725674E-2,-8.5714E-1,9.637808E-1,-2.8689778E-1,-3.066445E-1,4.0709233E-1,-2.1225469E-1,-1.0102515E0,1.913269E-1,-5.835999E-1,4.356274E-1,-4.3819335E-1,6.014321E-1,-3.8165364E-1,-2.2603844E-1,-1.1690292E0,-9.011554E-2,-7.0256305E-1,9.475061E-2,7.531695E-1,-5.6593573E-1,6.3235074E-1,-5.528461E-2,-8.2204694E-1,6.445304E-2,-8.271685E-1,-9.4473404E-1,-1.8890026E-1,-1.5566444E-1,-1.1063921E0],"categories":[],"categories_nodes":[],"categories_segments":[],"categories_sizes":[],"default_left":[1,1,1,1,1,0,1,1,1,0,1,0,0,0,1,1,0,0,0,1,1,0,0,1,0,0,1,0,1,0,0,0,0],"id":12,"left_children":[1,3,5,7,9,-1,11,13,15,-1,17,-1,-1,-1,19,21,-1,-1,-1,23,25,-1,-1,27,-1,-1,29,-1,31,-1,-1,-1,-1],"loss_changes":[2.8415158E0,2.8992229E0,2.757074E0,2.5529573E0,3.7649775E-1,0E0,5.8556676E-1,1.5973829E0,1.4100869E0,0E0,3.0484772E-1,0E0,0E0,0E0,1.1085067E0,4.335549E-1,0E0,0E0,0E0,2.6418407E0,5.029063E-1,0E0,0E0,7.99881E-1,0E0,0E0,2.808745E-1,0E0,4.423101E-1,0E0,0E0,0E0,0E0],"parents":[2147483647,0,0,1,1,2,2,3,3,4,4,6,6,7,7,8,8,10,10,14,14,15,15,19,19,20,20,23,23,26,26,28,28],"right_children":[2,4,6,8,10,-1,12,14,16,-1,18,-1,-1,-1,20,22,-1,-1,-1,24,26,-1,-1,28,-1,-1,30,-1,32,-1,-1,-1,-1],"split_conditions":[4.00375E2,3.001E3,1.0795E3,1.57E3,1.632E3,5.782685E-1,2.95375E2,8.25E0,1.132125E3,-1.2735282E-1,1.19088125E4,1.1479615E-1,-3.5015997E-1,2.6137644E-1,1.579875E3,1.304E3,-2.289922E-1,-1.3562307E-1,-7.0141757E-1,1.44375E2,1.375E0,5.685037E-2,4.519017E-1,6.6625E1,3.7941048E-1,-3.3170767E-2,7.01375E2,3.867183E-2,2.0075E2,-5.6684047E-1,-1.1334016E-1,-9.339867E-2,-6.638353E-1],"split_indices":[9,49,0,4,40,0,18,10,19,0,33,0,0,0,11,22,0,0,0,1,18,0,0,1,0,0,46,0,13,0,0,0,0],"split_type":[0,0,0,0,0,0,0,0,0,0,0,0,0,0,0,0,0,0,0,0,0,0,0,0,0,0,0,0,0,0,0,0,0],"sum_hessian":[3.0802794E1,2.5090555E1,5.7122383E0,2.0105824E1,4.984731E0,3.3722746E0,2.3399637E0,1.3404157E1,6.7016683E0,1.4142736E0,3.5704577E0,1.0319006E0,1.3080629E0,1.6699336E0,1.1734222E1,5.5673957E0,1.1342722E0,1.0092628E0,2.561195E0,5.644007E0,6.0902157E0,1.6574101E0,3.9099858E0,3.5334918E0,2.1105154E0,1.1769634E0,4.913252E0,1.255963E0,2.2775288E0,3.7034888E0,1.2097632E0,1.1263244E0,1.1512043E0],"tree_param":{"num_deleted":"0","num_feature":"54","num_nodes":"33","size_leaf_vector":"0"}}]},"name":"gbtree"},"learner_model_param":{"base_score":"5E-1","boost_from_average":"1","num_class":"0","num_feature":"54","num_target":"1"},"objective":{"name":"binary:logistic","reg_loss_param":{"scale_pos_weight":"1"}}},"version":[1,7,4]}